<?xml version="1.0"?>
<opencv_storage>
<cascade>
  <stageType>BOOST</stageType>
  <featureType>HAAR</featureType>
  <height>15</height>
  <width>60</width>
  <stageParams>
    <boostType>GAB</boostType>
    <minHitRate>9.9500000476837158e-01</minHitRate>
    <maxFalseAlarm>5.0000000000000000e-01</maxFalseAlarm>
    <weightTrimRate>9.4999999999999996e-01</weightTrimRate>
    <maxDepth>1</maxDepth>
    <maxWeakCount>100</maxWeakCount></stageParams>
  <featureParams>
    <maxCatCount>0</maxCatCount>
    <featSize>1</featSize>
    <mode>BASIC</mode></featureParams>
  <stageNum>9</stageNum>
  <stages>
    <!-- stage 0 -->
    <_>
      <maxWeakCount>2</maxWeakCount>
      <stageThreshold>-2.5517871603369713e-02</stageThreshold>
      <weakClassifiers>
        <_>
          <internalNodes>
            0 -1 4 3.7497371435165405e-02</internalNodes>
          <leafValues>
            -5.6268221139907837e-01 8.8509875535964966e-01</leafValues></_>
        <_>
          <internalNodes>
            0 -1 22 -7.5288047082722187e-04</internalNodes>
          <leafValues>
            6.8042433261871338e-01 -9.1061663627624512e-01</leafValues></_></weakClassifiers></_>
    <!-- stage 1 -->
    <_>
      <maxWeakCount>2</maxWeakCount>
      <stageThreshold>-9.2414237558841705e-02</stageThreshold>
      <weakClassifiers>
        <_>
          <internalNodes>
            0 -1 15 -4.0223408723250031e-04</internalNodes>
          <leafValues>
            6.7362427711486816e-01 -8.7837839126586914e-01</leafValues></_>
        <_>
          <internalNodes>
            0 -1 2 6.6872872412204742e-02</internalNodes>
          <leafValues>
            -6.0628879070281982e-01 7.8596413135528564e-01</leafValues></_></weakClassifiers></_>
    <!-- stage 2 -->
    <_>
      <maxWeakCount>4</maxWeakCount>
      <stageThreshold>-6.5831416845321655e-01</stageThreshold>
      <weakClassifiers>
        <_>
          <internalNodes>
            0 -1 34 2.3147249885369092e-04</internalNodes>
          <leafValues>
            -8.3333331346511841e-01 6.4138579368591309e-01</leafValues></_>
        <_>
          <internalNodes>
            0 -1 3 7.7145904302597046e-02</internalNodes>
          <leafValues>
            -4.9401170015335083e-01 7.6278471946716309e-01</leafValues></_>
        <_>
          <internalNodes>
            0 -1 31 1.5587755478918552e-04</internalNodes>
          <leafValues>
            -9.3714469671249390e-01 3.8519269227981567e-01</leafValues></_>
        <_>
          <internalNodes>
            0 -1 8 2.6871100999414921e-03</internalNodes>
          <leafValues>
            2.8383818268775940e-01 -9.5329743623733521e-01</leafValues></_></weakClassifiers></_>
    <!-- stage 3 -->
    <_>
      <maxWeakCount>5</maxWeakCount>
      <stageThreshold>-2.2906246781349182e-01</stageThreshold>
      <weakClassifiers>
        <_>
          <internalNodes>
            0 -1 18 4.4730363879352808e-04</internalNodes>
          <leafValues>
            -6.3188403844833374e-01 6.6467660665512085e-01</leafValues></_>
        <_>
          <internalNodes>
            0 -1 21 -5.4612858220934868e-03</internalNodes>
          <leafValues>
            7.9243201017379761e-01 -3.5939761996269226e-01</leafValues></_>
        <_>
          <internalNodes>
            0 -1 29 1.5409891784656793e-04</internalNodes>
          <leafValues>
            3.3249858021736145e-01 -9.6021181344985962e-01</leafValues></_>
        <_>
          <internalNodes>
            0 -1 29 -3.7938306923024356e-04</internalNodes>
          <leafValues>
            -9.5817846059799194e-01 2.7874317765235901e-01</leafValues></_>
        <_>
          <internalNodes>
            0 -1 20 7.1136964834295213e-05</internalNodes>
          <leafValues>
            -9.2492341995239258e-01 1.5097744762897491e-01</leafValues></_></weakClassifiers></_>
    <!-- stage 4 -->
    <_>
      <maxWeakCount>3</maxWeakCount>
      <stageThreshold>1.1407700926065445e-01</stageThreshold>
      <weakClassifiers>
        <_>
          <internalNodes>
            0 -1 1 3.4969180822372437e-02</internalNodes>
          <leafValues>
            -4.5842695236206055e-01 7.2265195846557617e-01</leafValues></_>
        <_>
          <internalNodes>
            0 -1 25 -3.8879952626302838e-04</internalNodes>
          <leafValues>
            4.2329648137092590e-01 -8.1315523386001587e-01</leafValues></_>
        <_>
          <internalNodes>
            0 -1 24 3.0149420490488410e-04</internalNodes>
          <leafValues>
            2.0458032190799713e-01 -9.6540236473083496e-01</leafValues></_></weakClassifiers></_>
    <!-- stage 5 -->
    <_>
      <maxWeakCount>5</maxWeakCount>
      <stageThreshold>-5.6020712852478027e-01</stageThreshold>
      <weakClassifiers>
        <_>
          <internalNodes>
            0 -1 5 -3.8503785617649555e-04</internalNodes>
          <leafValues>
            5.5565410852432251e-01 -7.9325842857360840e-01</leafValues></_>
        <_>
          <internalNodes>
            0 -1 30 -1.5016798861324787e-03</internalNodes>
          <leafValues>
            5.4424530267715454e-01 -4.8516049981117249e-01</leafValues></_>
        <_>
          <internalNodes>
            0 -1 27 -2.9934116173535585e-04</internalNodes>
          <leafValues>
            -9.2165654897689819e-01 3.1991645693778992e-01</leafValues></_>
        <_>
          <internalNodes>
            0 -1 17 -5.7280667533632368e-05</internalNodes>
          <leafValues>
            1.8181884288787842e-01 -9.4634610414505005e-01</leafValues></_>
        <_>
          <internalNodes>
            0 -1 37 -4.3912041292060167e-05</internalNodes>
          <leafValues>
            -8.1854856014251709e-01 2.1647652983665466e-01</leafValues></_></weakClassifiers></_>
    <!-- stage 6 -->
    <_>
      <maxWeakCount>6</maxWeakCount>
      <stageThreshold>-1.5746311843395233e-01</stageThreshold>
      <weakClassifiers>
        <_>
          <internalNodes>
            0 -1 7 -1.8065603449940681e-02</internalNodes>
          <leafValues>
            -8.1896549463272095e-01 5.7245081663131714e-01</leafValues></_>
        <_>
          <internalNodes>
            0 -1 0 1.0855178534984589e-01</internalNodes>
          <leafValues>
            -3.5261219739913940e-01 7.1636348962783813e-01</leafValues></_>
        <_>
          <internalNodes>
            0 -1 6 -1.6312903026118875e-03</internalNodes>
          <leafValues>
            3.3427223563194275e-01 -8.8652014732360840e-01</leafValues></_>
        <_>
          <internalNodes>
            0 -1 35 4.1621431591920555e-05</internalNodes>
          <leafValues>
            -8.6441725492477417e-01 2.3108181357383728e-01</leafValues></_>
        <_>
          <internalNodes>
            0 -1 10 1.7187299672514200e-03</internalNodes>
          <leafValues>
            1.8342824280261993e-01 -9.5032566785812378e-01</leafValues></_>
        <_>
          <internalNodes>
            0 -1 16 -2.8306860258453526e-05</internalNodes>
          <leafValues>
            -9.1393929719924927e-01 2.6533231139183044e-01</leafValues></_></weakClassifiers></_>
    <!-- stage 7 -->
    <_>
      <maxWeakCount>7</maxWeakCount>
      <stageThreshold>-8.0646663904190063e-01</stageThreshold>
      <weakClassifiers>
        <_>
          <internalNodes>
            0 -1 11 3.8160679396241903e-03</internalNodes>
          <leafValues>
            -4.1406250000000000e-01 6.3043481111526489e-01</leafValues></_>
        <_>
          <internalNodes>
            0 -1 32 4.0980106859933585e-05</internalNodes>
          <leafValues>
            -8.0850225687026978e-01 3.3451122045516968e-01</leafValues></_>
        <_>
          <internalNodes>
            0 -1 26 4.9779564142227173e-04</internalNodes>
          <leafValues>
            -9.3508654832839966e-01 2.3944421112537384e-01</leafValues></_>
        <_>
          <internalNodes>
            0 -1 28 -3.8636545650660992e-03</internalNodes>
          <leafValues>
            4.5250687003135681e-01 -4.8513910174369812e-01</leafValues></_>
        <_>
          <internalNodes>
            0 -1 23 8.8812295871321112e-05</internalNodes>
          <leafValues>
            2.2819057106971741e-01 -8.6671775579452515e-01</leafValues></_>
        <_>
          <internalNodes>
            0 -1 33 5.7439284864813089e-04</internalNodes>
          <leafValues>
            1.9159549474716187e-01 -8.2469427585601807e-01</leafValues></_>
        <_>
          <internalNodes>
            0 -1 36 3.7217214412521571e-05</internalNodes>
          <leafValues>
            -6.9797074794769287e-01 2.4200692772865295e-01</leafValues></_></weakClassifiers></_>
    <!-- stage 8 -->
    <_>
      <maxWeakCount>6</maxWeakCount>
      <stageThreshold>-1.0345649719238281e+00</stageThreshold>
      <weakClassifiers>
        <_>
          <internalNodes>
            0 -1 12 8.4249963983893394e-03</internalNodes>
          <leafValues>
            -3.8751471042633057e-01 6.6396540403366089e-01</leafValues></_>
        <_>
          <internalNodes>
            0 -1 13 -1.2329965829849243e-04</internalNodes>
          <leafValues>
            -8.5054028034210205e-01 3.0680263042449951e-01</leafValues></_>
        <_>
          <internalNodes>
            0 -1 14 3.7795049138367176e-04</internalNodes>
          <leafValues>
            2.8656455874443054e-01 -8.7010937929153442e-01</leafValues></_>
        <_>
          <internalNodes>
            0 -1 19 -1.6856522415764630e-04</internalNodes>
          <leafValues>
            1.8144188821315765e-01 -8.2503557205200195e-01</leafValues></_>
        <_>
          <internalNodes>
            0 -1 38 -7.0730568841099739e-03</internalNodes>
          <leafValues>
            4.0016061067581177e-01 -5.0449997186660767e-01</leafValues></_>
        <_>
          <internalNodes>
            0 -1 9 5.1661528414115310e-04</internalNodes>
          <leafValues>
            1.9498088955879211e-01 -9.1135281324386597e-01</leafValues></_></weakClassifiers></_></stages>
  <features>
    <_>
      <rects>
        <_>
          19 3 19 9 -1.</_>
        <_>
          19 6 19 3 3.</_></rects>
      <tilted>0</tilted></_>
    <_>
      <rects>
        <_>
          22 3 13 9 -1.</_>
        <_>
          22 6 13 3 3.</_></rects>
      <tilted>0</tilted></_>
    <_>
      <rects>
        <_>
          22 3 17 9 -1.</_>
        <_>
          22 6 17 3 3.</_></rects>
      <tilted>0</tilted></_>
    <_>
      <rects>
        <_>
          24 2 11 12 -1.</_>
        <_>
          24 6 11 4 3.</_></rects>
      <tilted>0</tilted></_>
    <_>
      <rects>
        <_>
          24 3 15 9 -1.</_>
        <_>
          24 6 15 3 3.</_></rects>
      <tilted>0</tilted></_>
    <_>
      <rects>
        <_>
          24 6 8 2 -1.</_>
        <_>
          24 6 4 1 2.</_>
        <_>
          28 7 4 1 2.</_></rects>
      <tilted>0</tilted></_>
    <_>
      <rects>
        <_>
          24 7 10 1 -1.</_>
        <_>
          29 7 5 1 2.</_></rects>
      <tilted>0</tilted></_>
    <_>
      <rects>
        <_>
          24 7 15 3 -1.</_>
        <_>
          29 7 5 3 3.</_></rects>
      <tilted>0</tilted></_>
    <_>
      <rects>
        <_>
          25 7 6 2 -1.</_>
        <_>
          27 7 2 2 3.</_></rects>
      <tilted>0</tilted></_>
    <_>
      <rects>
        <_>
          26 7 3 2 -1.</_>
        <_>
          27 7 1 2 3.</_></rects>
      <tilted>0</tilted></_>
    <_>
      <rects>
        <_>
          26 7 5 2 -1.</_>
        <_>
          26 8 5 1 2.</_></rects>
      <tilted>0</tilted></_>
    <_>
      <rects>
        <_>
          27 4 8 6 -1.</_>
        <_>
          27 6 8 2 3.</_></rects>
      <tilted>0</tilted></_>
    <_>
      <rects>
        <_>
          27 5 10 6 -1.</_>
        <_>
          27 7 10 2 3.</_></rects>
      <tilted>0</tilted></_>
    <_>
      <rects>
        <_>
          27 6 3 3 -1.</_>
        <_>
          28 6 1 3 3.</_></rects>
      <tilted>0</tilted></_>
    <_>
      <rects>
        <_>
          27 7 3 2 -1.</_>
        <_>
          28 7 1 2 3.</_></rects>
      <tilted>0</tilted></_>
    <_>
      <rects>
        <_>
          27 7 4 2 -1.</_>
        <_>
          29 7 2 2 2.</_></rects>
      <tilted>0</tilted></_>
    <_>
      <rects>
        <_>
          27 7 3 2 -1.</_>
        <_>
          27 8 3 1 2.</_></rects>
      <tilted>0</tilted></_>
    <_>
      <rects>
        <_>
          27 8 4 1 -1.</_>
        <_>
          29 8 2 1 2.</_></rects>
      <tilted>0</tilted></_>
    <_>
      <rects>
        <_>
          28 5 2 3 -1.</_>
        <_>
          28 6 2 1 3.</_></rects>
      <tilted>0</tilted></_>
    <_>
      <rects>
        <_>
          28 7 2 2 -1.</_>
        <_>
          29 7 1 2 2.</_></rects>
      <tilted>0</tilted></_>
    <_>
      <rects>
        <_>
          28 7 3 2 -1.</_>
        <_>
          28 8 3 1 2.</_></rects>
      <tilted>0</tilted></_>
    <_>
      <rects>
        <_>
          28 9 6 2 -1.</_>
        <_>
          28 10 6 1 2.</_></rects>
      <tilted>0</tilted></_>
    <_>
      <rects>
        <_>
          29 6 4 3 -1.</_>
        <_>
          29 7 4 1 3.</_></rects>
      <tilted>0</tilted></_>
    <_>
      <rects>
        <_>
          29 6 5 2 -1.</_>
        <_>
          29 7 5 1 2.</_></rects>
      <tilted>0</tilted></_>
    <_>
      <rects>
        <_>
          29 7 3 2 -1.</_>
        <_>
          30 7 1 2 3.</_></rects>
      <tilted>0</tilted></_>
    <_>
      <rects>
        <_>
          29 7 6 2 -1.</_>
        <_>
          31 7 2 2 3.</_></rects>
      <tilted>0</tilted></_>
    <_>
      <rects>
        <_>
          29 7 6 2 -1.</_>
        <_>
          29 8 6 1 2.</_></rects>
      <tilted>0</tilted></_>
    <_>
      <rects>
        <_>
          29 8 3 1 -1.</_>
        <_>
          30 8 1 1 3.</_></rects>
      <tilted>0</tilted></_>
    <_>
      <rects>
        <_>
          29 9 5 2 -1.</_>
        <_>
          29 10 5 1 2.</_></rects>
      <tilted>0</tilted></_>
    <_>
      <rects>
        <_>
          30 8 3 1 -1.</_>
        <_>
          31 8 1 1 3.</_></rects>
      <tilted>0</tilted></_>
    <_>
      <rects>
        <_>
          30 9 3 2 -1.</_>
        <_>
          30 10 3 1 2.</_></rects>
      <tilted>0</tilted></_>
    <_>
      <rects>
        <_>
          31 7 3 2 -1.</_>
        <_>
          31 8 3 1 2.</_></rects>
      <tilted>0</tilted></_>
    <_>
      <rects>
        <_>
          33 7 2 1 -1.</_>
        <_>
          34 7 1 1 2.</_></rects>
      <tilted>0</tilted></_>
    <_>
      <rects>
        <_>
          33 7 1 2 -1.</_>
        <_>
          33 8 1 1 2.</_></rects>
      <tilted>0</tilted></_>
    <_>
      <rects>
        <_>
          33 7 4 1 -1.</_>
        <_>
          35 7 2 1 2.</_></rects>
      <tilted>0</tilted></_>
    <_>
      <rects>
        <_>
          34 7 2 1 -1.</_>
        <_>
          35 7 1 1 2.</_></rects>
      <tilted>0</tilted></_>
    <_>
      <rects>
        <_>
          35 7 2 1 -1.</_>
        <_>
          36 7 1 1 2.</_></rects>
      <tilted>0</tilted></_>
    <_>
      <rects>
        <_>
          35 7 6 1 -1.</_>
        <_>
          37 7 2 1 3.</_></rects>
      <tilted>0</tilted></_>
    <_>
      <rects>
        <_>
          40 5 8 6 -1.</_>
        <_>
          44 5 4 6 2.</_></rects>
      <tilted>0</tilted></_></features></cascade>
</opencv_storage>
